<NeuralNetwork>
    <Inputs>
        <InputsNumber>6</InputsNumber>
        <Item Index="1">
            <Name>error_x</Name>
            <Units>meters</Units>
            <Description></Description>
        </Item>
        <Item Index="2">
            <Name>error_x_old</Name>
            <Units>meters</Units>
            <Description></Description>
        </Item>
        <Item Index="3">
            <Name>error_x_old_old</Name>
            <Units>meters</Units>
            <Description></Description>
        </Item>
        <Item Index="4">
            <Name>d_error_x</Name>
            <Units>meters per second</Units>
            <Description></Description>
        </Item>
        <Item Index="5">
            <Name>d_error_xold</Name>
            <Units>meters per second</Units>
            <Description></Description>
        </Item>
        <Item Index="6">
            <Name>d_error_x_old_old</Name>
            <Units>meters per second</Units>
            <Description></Description>
        </Item>
    </Inputs>
    <ScalingLayer>
        <ScalingNeuronsNumber>6</ScalingNeuronsNumber>
        <Statistics Index="1">
            <Minimum>-0.905554</Minimum>
            <Maximum>1.01222</Maximum>
            <Mean>-0.00010419</Mean>
            <StandardDeviation>0.19565</StandardDeviation>
        </Statistics>
        <Statistics Index="2">
            <Minimum>-0.905554</Minimum>
            <Maximum>1.01222</Maximum>
            <Mean>-0.000105578</Mean>
            <StandardDeviation>0.19565</StandardDeviation>
        </Statistics>
        <Statistics Index="3">
            <Minimum>-0.905554</Minimum>
            <Maximum>1.01222</Maximum>
            <Mean>-0.000106966</Mean>
            <StandardDeviation>0.19565</StandardDeviation>
        </Statistics>
        <Statistics Index="4">
            <Minimum>-3.1355</Minimum>
            <Maximum>1.9794</Maximum>
            <Mean>-0.00560435</Mean>
            <StandardDeviation>0.506821</StandardDeviation>
        </Statistics>
        <Statistics Index="5">
            <Minimum>-3.1355</Minimum>
            <Maximum>1.9794</Maximum>
            <Mean>-0.00560454</Mean>
            <StandardDeviation>0.506821</StandardDeviation>
        </Statistics>
        <Statistics Index="6">
            <Minimum>-3.1355</Minimum>
            <Maximum>1.9794</Maximum>
            <Mean>-0.00560474</Mean>
            <StandardDeviation>0.506821</StandardDeviation>
        </Statistics>
        <ScalingMethod>MinimumMaximum</ScalingMethod>
    </ScalingLayer>
    <MultilayerPerceptron>
        <Architecture>6 64 64 1</Architecture>
        <LayersActivationFunction>HyperbolicTangent HyperbolicTangent Linear</LayersActivationFunction>
        <Parameters>-1.39946 -0.668688 -0.885236 0.737704 -0.606847 1.42595 0.53774 0.177334 0.168559 1.52167 1.73973 1.43642 1.43278 0.099108 1.29143 -0.394717 1.46472 0.69231 -0.288779 -0.377387 0.648763 0.10821 -0.457764 -0.0550472 -1.66482 0.456621 -1.27008 0.678149 0.342996 -0.283867 0.693627 -0.78136 -0.456246 -0.210201 1.57672 0.15266 0.912104 -0.204525 -0.942033 1.48319 0.760172 0.220734 0.894337 0.394174 0.869162 0.918907 -1.0399 1.52348 -0.551894 -0.382081 -0.616046 0.153451 0.183624 -0.260654 0.26369 0.27372 -1.83805 0.92864 0.606781 1.59916 -0.301104 1.05275 -0.776911 0.157696 1.46347 0.00400252 -2.80864 -1.07528 -0.627919 0.238226 -0.240146 -0.155601 -0.335519 1.23725 0.95313 0.147107 1.02971 0.542296 -0.46895 1.16688 -2.41528 0.952059 0.816748 2.61058 -0.240203 -0.766699 0.445143 -0.332174 -1.56274 0.130508 -0.938691 -0.460572 -0.71619 -0.302759 -0.860208 -0.897545 -1.15303 0.136708 -0.173651 -1.31552 0.594668 -0.492898 1.45034 0.706754 1.27181 0.240606 0.664014 -0.000814568 -1.2721 -0.145164 -1.10616 -0.957338 0.980874 0.563596 1.95887 -1.90799 -1.16399 -1.08106 -0.151021 1.39097 -0.229614 0.672601 -0.154464 0.259149 -1.89738 0.50809 -1.341 -1.41493 1.57664 2.03831 1.29356 -2.02402 -0.100946 -1.40218 0.642086 -0.489268 0.694072 -1.78946 0.0104183 0.514241 0.063386 1.21357 -1.8072 2.06542 0.340558 0.982286 -1.2624 3.1487 1.36147 0.181495 -0.464349 2.22219 1.60064 0.359812 0.572488 0.736862 -1.24001 -1.12627 0.429453 0.105252 -0.0507924 0.00843088 -1.90224 1.06584 2.02654 -0.46158 -2.22257 1.31961 1.38425 1.03686 -1.70012 -0.990991 -0.994261 0.781363 1.93012 -1.14119 0.801159 -0.47894 0.763039 1.15467 -0.407877 1.97076 0.796666 -0.793691 1.45937 0.916628 1.3214 -2.19994 2.02391 0.701751 1.07962 0.218695 -1.06616 -0.886292 0.474177 0.478241 -1.49872 0.4486 0.339761 0.633392 -1.02491 -0.684789 -1.71589 1.55606 1.48052 -0.531127 0.14786 -0.127341 -0.876062 0.51025 1.54968 -1.35064 -0.167819 -0.536615 0.0469945 2.06241 -1.49562 -0.075836 1.1949 -0.121485 1.15341 -2.09926 -0.320631 0.464297 0.755653 1.07094 1.04627 0.21899 0.250449 -1.39338 0.168932 0.155579 -0.967666 -0.644602 -1.29012 0.147098 0.168464 -1.63678 -0.794833 0.0959997 0.58082 -1.75743 -0.984654 1.96356 0.411673 2.6167 0.0104095 0.972969 0.377786 0.171659 0.278424 -1.12944 -1.3348 -0.863973 0.235263 -0.553283 -0.934633 -0.700651 -0.710812 -0.111969 1.91173 0.462967 -0.80146 1.17773 -0.0634338 -0.194482 -2.13647 0.366464 -1.13814 1.64071 -1.50994 -2.58694 -0.497005 0.492734 -1.2276 0.839926 -1.04888 1.21496 -1.24455 -0.992745 -0.287459 -1.12258 -1.41086 -1.76191 1.16766 -0.680565 -2.11725 -1.07427 1.27358 -2.05718 0.216984 1.78232 -0.384455 1.27074 -1.8773 -2.18649 0.146169 -0.660541 -0.175236 -1.1468 0.301184 -1.37683 -0.2273 0.981902 -1.07547 2.58092 1.60677 1.05452 -0.803662 -1.42626 0.438074 -0.286264 -0.266393 0.363512 -1.30517 0.803474 0.205634 -0.280014 0.0627072 1.49547 1.80395 1.02327 -1.59151 -0.958213 -0.661733 0.598002 2.52626 -0.806244 -1.44804 0.14747 -1.24942 0.835708 -0.636851 -2.83756 1.4167 0.503137 1.55353 0.135398 -0.0200637 0.797265 0.921109 0.84182 -1.00034 1.78491 0.752946 -0.385738 -0.166269 0.0828094 -1.19876 1.84492 0.0692231 1.32126 -1.50028 0.301195 1.29258 1.2492 0.0292248 0.441717 0.170489 -0.57443 -0.955726 1.24374 1.58881 0.556212 -0.567445 0.953209 0.0141328 0.975579 0.834913 -1.62319 -1.44699 0.353861 0.208994 0.441712 -0.268175 0.0726412 -0.555085 -0.451 -0.186314 0.04606 -0.779056 0.304577 -0.966517 1.02062 -0.264981 2.38473 0.908558 0.730092 -0.79528 -0.444498 -0.75917 -2.33811 -1.6813 0.455141 1.04769 -1.24271 0.00518767 -0.594411 -0.586071 0.558316 -0.473088 1.18281 2.41554 -1.09239 -0.305503 1.70568 1.00191 -2.70332 1.28241 -0.0184195 -0.482688 -1.34886 -1.3759 -1.43235 0.540441 0.171721 1.86191 0.283353 0.652565 0.248217 -1.05072 -0.194307 -1.66769 1.61805 -0.97101 -0.525165 0.61417 1.07231 -0.298017 -0.369634 -0.321785 -0.596632 -1.79544 -2.94578 -0.769679 -1.34352 -0.423286 -1.10622 -0.561942 -1.82328 -0.11713 1.18373 1.00753 0.8528 0.13985 -0.389462 -1.61059 0.434422 -0.852384 -1.28206 1.12582 -0.545319 0.533751 -0.235007 -0.485036 0.089687 -1.26269 -1.36602 -0.0863109 -1.83864 0.126651 -1.22212 -2.13396 1.58825 -0.56622 1.83267 -0.215261 -0.0265299 -2.56925 -1.22903 0.619019 0.146658 -1.13086 0.574199 -0.371389 0.0712137 -0.0771636 1.288 0.853489 1.47855 0.195452 -1.09353 1.08636 1.18031 -1.6461 -1.06169 1.28638 0.234862 -0.140502 -0.395738 0.361175 -2.24831 0.867355 -0.336778 0.724451 1.28883 -0.64216 -1.49415 -0.153238 1.56573 1.2689 -1.16914 0.00276127 -0.175871 -0.245621 0.834029 0.193945 2.06146 -1.1066 -1.61966 0.165131 0.516944 1.89409 -0.416297 0.046538 1.19164 0.642956 0.0395231 -0.427119 -0.902387 0.897443 0.00946398 0.400456 -0.0314387 0.284329 0.621348 -0.134163 0.30578 -0.152504 0.971621 -0.267479 0.665124 -0.742961 -0.383083 -0.795369 0.513301 1.86516 -0.744842 -0.308289 -0.262092 -0.353565 0.231411 -0.686123 -0.718956 -0.393253 1.46142 0.445111 0.880829 0.615347 -0.559623 -0.0140751 0.494234 -0.151081 -0.510647 -1.78674 -0.640107 -1.09259 -0.914288 0.56435 -0.863308 -1.65462 0.0913498 -0.0926305 -1.08227 -0.691649 -1.57603 0.523857 -0.533801 -1.01278 -1.03584 1.26248 -0.522021 -0.808699 -1.35127 -1.50997 0.70208 0.174088 -1.11018 0.0820532 -1.16994 -0.695809 1.06901 0.524848 0.712201 0.11939 1.40684 0.579551 -0.354354 1.39913 0.566959 0.582717 -0.919703 0.296314 -0.0279408 0.883999 -0.733317 -0.460715 -1.60526 0.287875 -0.342564 0.638056 0.361548 0.835393 0.262233 -1.17463 -0.54057 -0.251303 1.28852 0.00947256 0.5559 0.114179 -0.661528 0.720781 -0.623104 -0.640732 0.245814 -0.547913 -0.320085 0.935791 -0.50649 0.586474 -0.766918 -1.62503 0.548323 -0.606713 -1.23766 0.203317 0.636383 0.154428 0.0567447 -0.467972 -0.0235182 -0.933571 -1.41997 0.326884 -1.20018 -1.04819 -1.32822 1.10703 2.35926 0.169885 -0.0010069 -0.341572 -0.604725 -1.51122 -1.43573 1.11592 -1.65665 -0.0223991 -0.421129 0.315263 0.745267 0.165134 1.40235 1.58901 0.581165 -0.878521 -0.443194 0.457413 -1.17748 -0.0126298 -0.280856 -0.826744 -0.977559 -0.432746 -0.26419 2.63972 -1.02075 0.668831 -0.585209 -0.608238 0.886773 1.02242 0.433747 0.723485 -1.86212 -0.0777218 1.20367 -1.66505 0.291766 0.0865927 -1.35832 -0.545866 0.195325 -0.597376 -0.939212 0.560958 0.0783266 -0.990225 1.02321 -0.055143 -1.72265 -0.907782 0.291346 -0.934142 0.801405 -0.0155924 0.0953561 -0.904415 -1.74836 -0.929411 0.0290616 0.158817 -0.0165694 -0.235766 0.663328 -1.70329 0.622899 -1.2426 -1.11908 0.770974 0.0525573 -0.270861 -2.06293 0.944756 1.21982 -0.271328 -0.252099 -2.0724 1.26935 1.56352 0.908333 2.49027 0.277577 1.09186 -1.39807 1.78074 0.603507 -1.66817 -1.10074 -1.01179 0.0319105 0.211065 0.116064 0.368755 0.220025 0.924427 -1.06314 -0.110703 0.940716 1.6702 2.10836 -0.887659 -0.608037 -0.983868 -0.50309 0.155004 -0.935885 -0.97847 -1.79746 -0.153023 -0.288083 2.40038 0.260418 1.64524 0.387645 0.0393125 1.01397 0.641391 1.18943 0.0983956 3.45298 -1.76589 0.173712 0.839476 0.350743 -0.283105 0.105293 -1.51424 1.14395 1.00909 -0.602412 0.644803 1.60693 0.365651 0.926284 -0.669728 -0.127178 1.38246 0.627439 0.158165 0.710793 1.71378 1.32868 -1.08123 0.438417 0.0248683 -1.35257 -1.34805 0.391084 0.0873299 -0.357305 -0.732345 2.23743 -1.2841 -0.856337 1.99156 1.60987 -0.167049 -1.02724 0.434585 -1.83315 -0.386266 1.01843 1.86881 1.15796 -0.0412083 -0.476622 -0.339794 1.80854 -0.8206 -0.157108 1.03327 -0.225474 -0.279651 0.222406 -0.267124 -0.652879 1.82794 0.638169 1.24947 1.36185 1.26565 1.80222 0.254922 0.634647 1.03257 2.1893 -0.137681 1.77125 0.787615 1.48417 -0.321986 -0.0333278 -0.0352496 0.539332 -0.289838 0.485614 -0.618823 -1.35987 -1.78776 0.67973 1.37907 -0.420022 -2.01663 -0.639472 -1.6876 0.493784 -0.174444 -1.80179 2.0565 -0.621006 -0.423931 -1.36821 0.705384 -0.878247 1.68078 1.34909 1.05078 -0.344066 -0.0209814 1.46886 -0.518165 -0.431461 0.947178 -0.555621 -0.945763 -0.11705 -0.621541 2.04558 0.206553 0.0125504 0.0101709 1.81947 -0.0605277 -0.454427 0.0615928 -0.636796 0.103178 0.343508 1.04207 0.962209 -0.89534 -0.748018 -1.82851 0.316937 0.445215 -1.8452 1.02756 2.17349 -0.979323 -0.562106 -0.347506 -0.790948 0.756891 0.946964 0.69027 -1.90968 -0.427975 0.58335 1.28697 -0.119453 1.49022 -1.18388 0.43576 -1.96931 -0.804018 0.96547 1.01224 2.14299 0.6246 1.29716 -0.0247065 -0.308668 1.46811 -0.699911 -0.657216 -0.983086 -0.498512 -0.708143 -0.206681 1.04952 0.691363 1.10368 -1.08065 -0.905047 -1.85394 -2.53456 -0.300406 -0.801573 1.43313 -0.901047 0.469372 0.627419 -1.33183 -0.0462947 0.389472 1.00012 -0.886172 -0.224275 -0.715906 -0.00199445 -0.565729 1.19366 -0.624539 0.524714 0.0677383 0.275494 -0.99555 -0.0808054 1.05143 -1.14606 -0.997248 0.441158 0.990117 0.558969 0.245082 -0.261191 -0.410564 -2.04791 -0.8015 -0.195897 -0.401357 0.706349 -0.82017 0.281772 0.225407 -0.126109 -1.83845 -0.728706 -0.610225 0.632186 0.164967 -1.32062 1.45295 -1.01072 1.18903 0.722812 -0.707992 -0.562061 0.594255 -2.36794 -0.33415 -1.04508 -0.0749021 -0.844387 0.0842677 -1.058 0.557987 0.0602903 0.727559 -0.419713 0.762727 -0.088324 0.828731 -0.41888 -0.371502 -0.224679 -0.613742 -0.505465 0.431019 -1.20395 0.164375 0.827748 0.481838 -0.0507755 0.804913 0.752873 1.05048 -0.0252945 0.673406 -0.74359 -1.31959 -0.054023 -0.360491 0.887412 -0.375469 2.64682 -0.782885 1.08391 -0.183105 -0.59033 1.54335 0.141764 0.587695 0.111876 0.719213 -0.458821 0.019671 -0.484393 0.777571 1.71765 1.50873 -1.33929 -0.2543 -0.332377 -0.525962 -0.368895 0.143059 1.18776 0.180861 -0.289267 0.115876 0.192485 1.13022 0.0911555 0.535272 -1.23455 -1.07703 0.728596 -0.241318 0.267073 1.61499 0.311894 -0.676898 -1.20441 -0.641734 0.423299 -0.560193 -1.63047 -0.297496 0.395428 2.19596 1.63583 -0.716545 1.14453 1.26616 -0.179531 0.469194 0.481922 -0.243438 1.70659 0.558176 1.8678 0.577801 -1.22154 0.57646 0.359584 1.22467 -0.337446 -0.127824 1.57115 0.00494346 -0.225215 1.97958 -0.211431 0.466511 1.12071 0.764035 -0.709475 0.0664459 -1.71614 0.727783 -0.50771 1.09494 0.62961 -0.370011 -1.15925 0.135525 0.294215 -0.234029 -2.33242 0.962706 0.64152 0.722761 -0.277891 -0.424175 0.702536 -0.274163 0.543301 -0.136345 1.36605 -1.1606 0.108933 0.0254989 1.16354 -0.184326 -0.232964 -0.733197 1.10109 -0.739217 2.35492 -0.651051 -1.24634 1.71916 1.19372 0.130492 1.19612 1.7605 0.130377 0.746166 1.48731 0.570624 0.16808 0.449214 -0.622023 -0.142677 -0.31612 0.97707 0.552682 -0.193575 -0.473346 -0.0383972 0.397666 -2.24061 -1.52318 -0.492496 -1.9668 0.505208 -0.744209 -0.673006 1.84058 0.820865 -0.331443 0.48085 1.83006 -0.263664 -0.155169 -1.05886 -1.40997 0.679778 -0.135955 0.0553549 -1.18228 -1.02955 -1.24358 0.274195 2.09608 0.312542 0.072703 1.13196 0.523423 0.397252 0.446957 -0.209056 1.61752 -0.04328 -0.238187 3.18736 -0.564667 -1.96406 -1.24682 -0.583002 -0.120912 -0.124065 0.122864 1.71082 0.433521 -0.502749 0.804125 -0.624665 0.0818457 -1.58796 0.980871 -0.0285233 -0.0261022 0.546083 0.516012 -0.79346 0.129339 -0.196884 -0.797334 -0.497497 -0.285348 0.102805 1.3087 -1.58635 0.472521 1.12545 0.385147 0.291035 0.640767 1.73959 -0.679633 0.27275 -1.45945 -1.85375 0.421813 -0.229133 -0.406124 2.80034 0.156383 -1.69531 -1.68197 -0.778378 1.65926 -0.856934 -1.32053 -0.201106 -0.801241 0.0143642 -0.251014 0.481071 1.11846 -0.427311 -0.292679 -0.439652 0.466684 -0.318684 -0.456236 0.516798 0.033447 0.50751 -0.234389 -0.0844219 -1.25384 -0.461877 0.643888 -0.0565587 -0.631309 -0.125598 -0.965528 -0.444712 0.00303724 -0.339817 0.673532 -0.60819 0.816097 2.76774 0.116853 0.30262 0.0891348 -0.153342 0.691916 0.577244 0.334914 0.189448 0.148792 -1.99544 -0.211799 -0.481624 -0.658981 -0.949678 -0.985139 2.05114 0.162184 0.692499 -0.81177 0.557519 -0.523542 -0.0393097 -0.539049 -1.73274 2.70897 1.10969 -1.8479 -0.297456 -0.493299 0.359934 -0.0828794 0.642857 -0.730171 0.55165 0.627327 -1.18076 0.225507 -0.618068 -0.318385 -0.965793 1.68696 2.09073 0.17629 -0.614879 1.50166 -0.698703 0.3911 0.689101 0.258768 -1.54396 -0.819768 0.227467 0.570161 0.217778 -1.15564 0.735683 2.28627 -0.0664399 -0.192981 -0.149058 0.107913 0.560354 0.252565 -0.113319 -0.574091 1.71071 -1.10951 0.788502 -0.279162 0.183023 -0.0788599 -0.371104 -0.931285 0.197199 -0.650683 -2.05627 -2.53524 -0.840935 -1.48942 -1.61183 0.683403 2.01171 -1.58493 1.15034 0.588176 -0.716036 -1.22979 -0.296775 1.09839 0.70669 -0.243306 -0.256632 0.104503 -0.0666811 -1.24781 0.674442 -0.00273576 0.894856 -1.12467 1.35115 1.38295 0.454926 0.334851 -0.12959 0.207707 -1.46517 -1.08761 0.421364 2.21312 0.223246 0.27055 -0.346024 -0.582903 2.04253 0.350879 -1.38759 1.10678 2.21483 -0.372838 -0.0961682 -0.656714 0.51428 0.120371 0.546857 -1.51142 0.946667 1.61494 -1.29952 0.292556 -2.08765 0.490163 1.31532 -0.00923264 0.927014 -1.2907 -0.521024 1.04593 -0.0183521 1.29907 0.273346 0.378592 -0.216343 -0.469148 0.235533 -1.40397 -0.940987 -0.0128604 -1.00163 -3.37037 0.671557 0.766207 -1.4778 0.0388023 1.05583 0.350067 0.00787331 -0.278511 -0.752887 1.21006 -1.36697 1.00787 0.669652 -0.386642 -0.754853 -0.302538 0.0733957 -0.518381 -0.376841 1.92225 -1.55083 0.868331 -1.4097 -0.812211 0.579641 -0.257003 0.283271 0.972537 1.23317 -1.7875 -1.98298 0.145186 -0.336645 -0.940894 0.552654 0.396732 -0.109785 0.805237 -0.966315 0.651097 -0.435168 -2.16586 0.723846 2.19828 1.12115 -0.38341 0.244342 -1.83605 2.07568 -0.671211 0.026824 2.81087 0.227978 -0.705035 0.0935023 -0.641046 -0.79483 0.347893 -0.597057 -0.631582 -0.118497 -1.60369 0.374229 -1.14874 -0.888932 0.260523 -0.816528 -1.35722 -0.25827 -0.672883 -0.0340336 0.145558 0.739993 -0.35845 -0.160514 -0.809897 -2.27246 -1.4081 -1.84873 -0.962575 0.924562 0.565159 1.87983 0.205252 0.500084 -1.67208 -1.81249 -1.21423 -0.245881 -0.452621 1.04858 -0.635504 -0.308778 0.487333 -0.16835 0.538295 -1.48705 0.444741 0.406381 -1.14804 -0.263344 -1.20291 0.755214 0.594371 1.22615 -0.73282 -1.05753 0.576392 -0.582273 0.94265 0.487048 0.975705 -0.620707 -0.365696 1.23162 -0.824305 0.278403 0.0424559 -0.044705 -1.00713 -1.49525 -0.626844 1.09244 1.68994 -1.74743 0.230107 1.89968 0.828935 -1.95086 1.99512 -0.270796 -1.49291 -0.309621 0.93041 0.349749 -1.50321 -0.49599 0.80395 -0.879577 0.837231 0.619359 -1.13599 -1.06615 0.68496 -1.3173 0.507909 -0.978302 2.60099 -1.17315 -0.0615754 -0.409679 -0.0130648 -0.454658 -0.531717 1.00852 1.77885 0.620214 -0.68739 -0.0512601 0.695464 -1.63593 -0.559831 -0.669731 0.0126883 0.212276 3.30074 -1.74116 -0.110831 -0.836898 -0.943204 0.290605 1.48374 -0.950745 -1.65582 1.17382 -0.697595 -0.149654 0.427407 0.581464 0.683885 0.146348 -0.809593 -0.0135227 -1.49284 -0.0136899 0.3558 -0.819324 1.10945 -0.579142 -0.273309 0.303554 -0.753598 -2.1914 -1.96162 -0.0287302 -1.29789 -0.0429904 1.1539 -1.23161 -1.04744 -1.603 -0.222411 0.834623 -0.0319288 0.83208 0.315985 1.20092 2.7792 0.233527 -1.71935 0.424598 -0.405475 -1.34539 -0.394825 -0.271249 -1.22166 0.437274 0.749782 0.356688 -0.763074 0.285186 -0.636654 1.4574 -0.163202 0.486063 -0.136793 -0.284845 -0.689727 0.519042 0.72704 1.41154 1.30469 -1.42997 -0.25939 -0.235677 0.823576 -0.969031 -0.865922 -0.844911 -0.39207 0.815252 0.78725 0.70315 0.520597 -1.19853 -1.45882 2.98188 0.42517 1.90819 -0.0131826 0.66073 1.37699 -2.07014 1.9466 -1.1128 0.00979077 1.12954 0.0899826 1.02278 -0.479786 -0.304984 -0.258948 -1.4531 1.48509 0.296816 -1.29197 0.596621 0.257262 1.62959 -0.426097 -1.21353 1.0108 -0.214004 0.26526 0.487348 -1.1046 1.36293 0.779028 0.265968 -0.769003 -1.29726 -0.138042 1.4232 -0.0911169 -1.22151 -0.982733 -1.48651 0.607041 -0.57978 0.541422 0.341303 -0.921387 -0.36059 -0.0515177 -0.233886 0.547041 -0.549302 -0.312845 -1.12713 -1.18203 -0.754556 -1.41041 1.41807 -0.121837 -0.852549 -0.834996 0.62366 0.551035 -1.20785 2.30312 -1.28315 0.0654083 -0.0685986 -0.355885 0.523028 -0.0912152 -0.205583 0.70507 -1.94947 -2.01126 1.31248 1.39233 -0.782746 -1.14973 1.0596 -0.790923 -0.513804 -0.13297 -0.991555 1.23762 -1.0335 2.05341 -0.762023 -0.790813 -0.963884 -0.9204 0.0368882 -0.159318 0.23349 0.260805 -0.181214 -1.00623 2.13822 -0.945039 -0.601996 0.504354 -0.824361 1.01571 0.614488 1.7057 -0.70607 -0.293884 -0.124944 -1.76543 -0.937669 -1.04779 -1.55037 1.0327 -0.268011 0.513107 -0.184916 -1.14631 0.840544 0.153153 0.560377 0.153241 0.616156 -0.521518 -0.880752 0.638396 -0.5969 -1.21015 -1.37707 0.564457 -0.639493 -1.15396 -1.80305 -0.189019 -0.127775 0.845466 -0.73743 0.935911 -1.42689 2.67851 0.423729 0.77842 -0.0464688 0.127997 -0.560309 0.778573 -1.24125 -0.519099 -0.871629 0.490152 -1.27747 0.165365 -0.948733 -0.959539 0.168978 -0.133994 -0.0163346 -0.460169 -0.879979 2.81228 0.509676 0.589232 -0.398108 -0.647376 -0.608452 2.17202 -1.22649 0.407565 -1.07012 0.879636 -0.371109 0.136181 -2.37551 -0.0374293 -0.816818 0.648208 -0.122432 1.06011 0.387131 0.115555 0.337457 1.0636 -0.546515 1.12678 -0.0770232 -0.95062 0.401982 -0.255303 -1.38371 -2.15412 -0.836193 -0.334183 1.23498 -1.5079 0.832002 1.67169 -1.82366 0.0554281 -1.03971 1.03819 0.0485655 0.524147 -0.963931 -0.309863 -0.95611 -1.60018 0.692361 1.05041 -0.652557 -1.22954 0.837501 -1.35741 -0.0715058 -0.157172 1.4887 0.39682 -0.578081 -1.43999 1.64099 0.377688 -1.30039 -1.34178 -0.593381 1.93299 0.74542 -0.0275722 1.02573 0.473095 -0.356545 0.586616 -0.458396 1.24559 -2.02615 2.1857 0.303082 -0.212152 -1.05929 -0.567133 -0.736288 -0.630813 0.0684041 0.343801 -0.484611 -1.08338 0.717714 -2.14906 0.293413 -0.146037 1.25051 -0.547469 0.220856 0.0166956 -0.18811 -1.10811 -0.0364965 -0.0666153 -0.0185162 -0.649906 1.42564 -0.248657 -0.825242 -0.330456 -1.84656 0.838934 -0.687766 2.21453 -0.0606472 -0.665748 0.224674 1.20976 0.306983 -0.115311 -0.266595 -0.804384 -0.0562366 0.0783567 0.0236204 -2.58442 -0.972923 -0.36907 -0.409096 2.08747 -0.319179 -1.55693 -0.259675 0.193493 -0.906559 0.279646 1.56865 0.775513 -0.389976 -0.251042 -0.524222 -0.494874 -0.723548 -0.458177 -0.598371 0.213171 -0.456877 2.15308 -0.104722 0.660759 -0.80576 -0.74008 0.0158846 0.22609 -0.0627701 -1.27797 -0.619563 1.24243 -0.481769 0.118157 -0.784418 -0.45283 -0.309697 0.904049 -0.208183 1.62616 -0.504369 -1.67022 1.52431 0.124519 0.976859 -1.43462 -1.87629 -0.402951 -0.834792 0.769929 1.39584 -1.37163 0.552634 0.246255 1.42507 0.00366946 -0.399236 -0.773694 -0.522714 1.48709 -0.260536 -0.00229683 -0.862314 -0.041849 0.595221 -0.899883 0.927071 0.608641 -0.842401 0.285307 0.0679324 -2.4038 -0.852417 0.687454 -0.810715 0.637959 -1.08759 -1.95865 -0.982923 0.641645 -0.26981 -2.06616 -0.935466 -0.0630558 -0.844087 -2.06287 0.377265 0.566023 0.31911 0.367201 0.0257924 0.316289 1.57773 -1.61621 0.614037 0.29169 0.429577 1.73828 0.401835 -0.815744 0.195894 -1.67729 -1.17484 1.89529 -0.188007 -1.51356 -0.284623 -1.01792 0.0286075 0.275624 1.10286 -0.562133 -0.459708 0.481076 0.609224 -0.639786 0.353807 0.0835441 -0.683613 -0.0201844 -0.305501 0.627064 0.329256 -0.192788 0.0204268 0.00742131 1.01999 -0.958173 -0.0931253 -0.680807 -1.0751 -1.1194 0.233572 0.485553 -0.0647701 0.434617 0.873502 -1.01002 0.332279 -0.511795 -1.3457 1.89931 0.141598 -0.224091 -1.87889 0.854107 1.51316 -0.992437 -1.6184 -0.440175 0.680867 1.41999 -1.26891 -0.0469489 -0.252869 -1.04864 -1.60026 1.51452 0.0686636 -0.907013 -0.827626 -0.114805 0.390815 0.348021 2.30038 -1.6352 0.695939 -1.6797 1.67329 -0.63128 0.674262 -0.901075 -2.90547 -0.254576 0.0568527 0.326248 0.0099094 -1.11495 1.33751 0.488546 -0.301027 0.611199 0.967944 0.202625 -1.01894 1.61261 -2.31339 0.685666 -0.0525739 0.534233 -2.41776 -0.869196 0.562898 -0.711317 1.26287 0.353094 0.365919 -0.479981 -0.119702 0.179436 0.91902 -0.933945 -1.48943 -0.360978 -0.481541 -0.346316 -0.165153 -1.24825 -0.979147 0.271002 0.0317835 1.62573 1.09847 0.761835 -1.49483 -0.813349 0.568633 -0.815346 0.462079 0.292245 0.736312 -0.618975 0.421815 0.322874 -0.679483 0.556825 -0.462223 0.632386 -0.512691 -0.766975 0.67891 0.63297 1.14858 1.65381 -1.46052 0.369903 -3.37064 -2.44915 -1.68466 1.69647 -1.33269 -0.390988 -0.601627 0.611239 0.675038 -0.0856035 -0.856669 -0.974355 -0.34025 1.28307 -1.32036 1.75959 0.981934 -2.1116 2.12983 1.07352 1.65776 1.24195 0.184369 0.925472 0.617434 1.28095 -0.354754 -1.70105 1.35234 -0.205525 0.0382318 -0.549525 -0.45579 1.09046 -0.792458 0.735385 0.12626 -0.450879 0.0510752 1.4427 -1.28666 0.943686 -1.20925 -0.199776 -1.80757 1.34762 -0.0210879 -0.264939 -0.300997 1.68175 -0.550388 1.0304 2.64049 -0.232703 0.0201278 -0.152927 0.472428 0.0548162 -1.4581 -0.0304837 1.24001 0.487974 0.558592 1.61272 0.293288 0.592475 -0.00093223 0.816307 -0.408803 0.0598057 -2.56237 2.68311 -1.72576 -0.115265 -1.21125 -1.06764 -0.113433 1.85797 0.247544 -1.39275 -0.693296 0.533019 0.545905 0.195009 0.0976345 -1.15755 -0.20773 0.138349 -0.883147 -0.244245 -0.0658397 0.699864 -0.340171 -0.871833 -0.963361 -0.125322 0.547546 0.0310201 -1.02654 1.12343 0.345346 0.186824 -0.801291 -0.464524 -1.1265 -0.864079 0.520679 -1.86654 -1.6247 0.481553 0.820869 1.27069 -0.251447 0.305046 1.54269 1.00476 1.4383 -0.39205 -1.54519 -0.399223 0.818416 1.33269 -0.308874 -0.0623148 -0.385526 -1.0934 -0.837077 1.89799 -0.388021 -0.445531 -0.961292 -0.281281 -0.547364 -0.138253 1.36964 -0.980196 -0.114242 1.05592 0.316013 -1.31994 -1.03257 0.911057 -1.00359 -0.821158 -0.684013 0.452187 1.04399 0.851199 2.23365 0.622764 -1.03762 1.63174 0.607897 0.808145 0.211921 -0.538121 -0.66763 1.44822 -0.992146 1.21767 -0.882367 -0.545275 2.62067 0.90221 0.58173 -0.657186 -1.66053 0.444083 -2.15272 0.216648 0.000124027 -0.602597 -1.30312 -0.241511 1.05204 -0.846824 -0.700824 -0.558558 0.115566 0.540951 0.805839 -2.04403 1.89838 0.7769 0.0723776 -0.745733 0.827704 -0.790486 0.600887 0.654268 0.669401 1.96029 -0.137469 -0.153169 -0.0451937 0.139428 -0.644426 1.15277 -0.884296 0.776261 1.65737 -0.230071 0.975105 0.772134 0.744551 0.155647 -1.2461 1.72933 0.890988 -0.481162 -2.27211 1.90001 0.869541 -0.775103 1.38365 0.225734 -0.313173 0.440128 0.380047 -0.692641 0.599165 0.506036 0.16901 -0.832101 1.04092 1.05577 0.969305 -0.888371 0.559043 -0.189837 -0.0346279 0.495116 0.951687 -0.678666 0.476224 0.470317 0.431441 -0.685653 1.09917 -1.34232 -0.45614 -1.46623 -1.9011 -1.40007 -0.880049 -0.0825803 -0.43247 -0.999344 2.03647 -1.03147 0.477292 2.03507 -1.05666 0.0474265 2.64495 -0.350215 0.372655 -1.59252 -0.123811 1.10449 1.05336 -0.151734 -1.59155 0.55581 0.386165 0.06515 0.612684 -0.137648 -0.454871 -0.0242925 -0.374247 -0.978225 -0.30519 -0.472768 0.032398 0.0878834 0.77115 0.0574796 -1.93765 -0.228484 -1.67154 -1.25687 0.551142 -0.861338 -0.508431 -0.975571 0.82339 0.268641 -0.330209 1.05109 -0.291209 1.00492 2.16992 0.71392 1.66886 1.32389 0.490337 -2.02068 -0.974652 0.228688 0.785833 -0.897663 -1.05774 1.06596 -1.17449 0.961772 -0.982518 0.675183 0.532527 0.544736 -0.711483 0.38803 -1.23829 -1.62918 -0.844174 0.796068 0.537132 0.0207597 0.218538 0.775115 -1.67312 -0.187675 1.10755 -0.306795 0.233331 -1.57028 0.235333 1.59335 0.375951 -0.362286 -0.059443 -0.923086 -1.23293 0.70825 -1.04633 0.756153 0.101946 0.64189 -0.729132 0.0611439 1.2651 0.813907 -2.02394 0.559212 2.10724 -0.139184 1.99839 0.471495 -0.0161671 -0.0895577 0.895009 0.689315 -0.353847 -0.943164 0.780803 -0.942632 1.52508 0.265897 2.26559 0.701947 0.748703 0.237263 -1.26327 0.334117 -0.516572 -1.41113 -0.0722718 -0.612247 0.227002 -0.167521 0.0298164 0.482121 -1.12424 0.431492 0.449156 1.14852 -0.504571 -0.691319 -1.2471 -1.8093 0.283254 1.06987 3.28761 0.16483 1.4528 0.593863 0.891654 -0.485085 -0.497609 -1.88586 -0.111891 0.279471 -2.17863 0.219485 -0.321411 -1.27703 -0.170118 0.272087 -0.691858 0.108598 2.83237 1.04032 1.37312 0.0849976 0.0921604 -0.773165 -0.935248 -0.433216 -1.35405 -2.24985 0.789471 0.939638 0.563622 0.266332 0.318815 -1.05064 -0.259816 0.555687 1.42417 1.52294 -1.2036 -0.534534 -1.07574 -0.54504 0.199567 0.574132 0.336678 1.43617 -1.83866 -0.0426901 1.71877 -0.393368 -0.136979 0.0465823 1.0341 0.795902 -0.0642057 -0.302932 0.162028 -1.03951 0.191466 -0.485963 0.272999 0.158337 -0.620844 0.189257 2.03244 0.33875 -1.56212 0.618654 0.12464 -0.57376 -0.184724 1.22855 -1.15368 0.510813 -2.29685 0.698923 -0.8127 -0.0102771 0.0329464 -0.757301 0.891347 0.304774 -1.66924 0.828545 1.4563 2.16347 -0.154313 1.26432 1.28754 0.578831 0.270433 -0.6237 2.23968 -1.1798 -1.15558 0.130821 2.04832 0.566021 -0.110981 1.03561 -0.344133 -0.650592 -2.05066 0.0230065 -2.05973 0.0446091 -0.132024 0.222916 -0.506657 0.87006 -0.963662 -0.0488891 -0.489646 -0.14402 2.05217 -1.09935 -0.0195264 0.205349 0.306011 0.62304 0.176692 -1.23232 1.60538 -0.338227 0.215549 1.6218 -1.59469 0.555385 -1.35699 1.15789 2.10372 -0.397106 0.362501 3.205 -0.566747 -0.709365 0.459633 0.413201 1.66309 0.00373288 0.511613 0.0625382 0.440893 1.6011 -0.0486215 -0.156972 -0.30213 -0.407 0.00894601 0.2591 -0.142713 0.0787097 -0.685461 -1.01241 -0.0904864 -0.789015 0.721546 -0.325042 -0.16659 0.584433 0.805871 1.14238 1.62495 2.04702 0.453462 -1.20243 0.463358 1.08097 -2.50241 -0.0535479 -0.0809049 -0.389124 0.593419 0.266869 1.42261 -1.03016 -0.892585 -0.682525 0.0984248 1.65753 -1.02351 -0.174139 0.767201 1.54428 -0.621055 0.829976 -1.4628 -0.00999988 0.189206 -0.735475 0.439845 0.682744 -1.51005 1.01403 -0.0890585 1.20608 1.69314 1.55351 1.43047 0.281469 0.51902 0.174798 0.912945 0.700662 0.228922 0.289385 0.425424 0.00431763 0.0931902 -0.550864 0.313188 -1.26288 -0.565111 -1.38269 0.0774451 0.241884 0.0609382 0.88698 0.563859 -0.965239 -0.053649 2.00102 -0.549209 -1.17823 -0.0468677 -0.0355627 0.175168 -0.813986 0.206846 -0.949973 0.206815 -0.628823 1.15781 -0.582781 -0.658577 -1.19562 2.20414 -0.595904 -0.117568 -0.61291 -0.832787 0.938425 -0.844477 0.580927 1.78941 1.42966 -1.01113 0.0448583 -0.659711 0.221384 -1.12602 -0.949465 -0.0727479 -0.132125 1.43143 0.349703 0.385549 -0.534672 0.531334 0.0492252 -0.195752 0.194582 0.236388 -2.21905 -2.05408 -0.27394 -1.1931 1.65322 -1.54617 -0.132617 2.06327 -0.160419 0.58251 1.02825 0.180262 0.876558 1.18593 1.99046 1.0437 2.12195 0.721293 0.184522 0.0354043 1.3414 -0.791601 -0.744154 -0.470891 0.775819 1.99466 -1.41005 -0.298426 0.371512 -0.14299 1.52224 1.94964 -0.984976 0.168354 -0.41228 1.17032 0.493492 -0.0360195 -0.125192 -1.36275 0.914034 0.266499 -0.663768 0.133252 -0.774567 -0.223348 1.7408 -1.1341 -0.0731006 -2.05061 -0.610745 0.132428 0.225307 -1.83362 0.107908 -0.116833 0.31828 0.880686 0.261249 -1.30482 1.83282 0.981768 -0.63321 0.519538 -0.0798077 -0.073356 0.808699 0.0488821 1.29803 1.27745 -1.02351 0.330772 -0.123728 0.339899 -0.529913 0.261483 2.89556 1.16573 1.40138 0.623664 -2.04191 -0.921318 -0.356998 0.951538 0.659773 1.54615 2.15195 0.558468 0.380036 -1.66255 -1.14468 0.696075 0.317723 0.573799 1.78837 1.07299 0.293333 -0.0756104 0.432994 -0.0759913 0.716296 0.0272419 -1.12316 0.92042 -1.7756 0.319183 -0.687043 -0.343422 -0.229469 -0.850724 -1.1285 1.08303 2.30105 -0.342056 -1.49092 -1.43834 0.427145 1.61593 -0.344508 -0.453201 -0.0666684 -0.189268 -0.521525 -0.560823 -1.00087 -0.514966 0.0829967 -0.740438 -1.57238 -0.0867016 -0.188222 1.19279 0.26084 0.251225 1.43203 0.164105 0.487765 -0.283634 0.539201 0.413105 -0.390251 -0.468455 -0.487467 -0.364053 0.70211 -1.24183 -2.46875 2.03554 -1.64263 -0.613346 2.50977 -0.841048 1.32981 0.218788 -0.907065 1.54274 0.570981 0.0427826 0.262222 0.0136359 0.218217 -0.401994 -1.54872 0.442149 0.425452 -0.321359 -1.0435 -1.19025 0.353718 0.693384 -0.205932 0.677495 -2.52145 -1.66018 1.90752 -0.711687 0.813687 -1.52634 0.322769 -1.53607 1.7901 0.418457 -0.0503519 -1.94699 -1.33653 0.20314 -0.622614 -1.74703 1.27007 0.442083 0.814181 1.77325 1.14486 -0.172476 1.42012 0.542138 -0.167906 0.443778 -0.0257612 0.520278 -0.347847 -1.66576 0.968617 -0.652654 -0.169734 1.28888 1.01857 -0.491213 0.810258 0.518047 -1.03223 -1.09624 0.77637 -0.171351 -1.34191 0.632443 -0.197671 0.484478 1.25448 -0.595856 -0.0937306 0.899012 0.160572 -0.124071 0.730501 0.785589 0.539899 0.130631 0.215734 -1.43976 -0.367103 -0.515599 -0.16986 0.476567 -0.292697 -1.85786 1.19228 1.15398 0.398279 1.20214 -1.63022 0.535334 -0.246353 -0.0237456 -0.748743 -0.578561 0.1357 0.793447 -0.677179 -1.03343 -0.452253 1.0027 -0.0357519 -0.271271 -0.856602 -0.184501 -0.66047 -0.198274 -0.188093 0.609256 0.252555 -0.939933 -0.287676 1.02224 -0.857965 -0.138817 -0.589813 0.334398 -1.71673 -0.284992 -0.520327 0.729668 0.310873 -0.643655 -0.228526 0.413341 -0.192393 0.128735 1.69052 -0.727999 -2.38567 -0.458915 1.4363 0.111062 -0.277987 1.2897 -0.48814 0.851179 1.99219 0.823529 0.157302 1.61632 0.912561 -0.756091 0.485855 -0.236067 0.472377 1.98094 0.422341 0.89448 -0.313126 -0.848627 1.21456 -0.340011 0.891463 0.772244 -0.78479 0.935307 0.663982 -1.67384 -1.67316 -0.419103 0.110263 1.19841 -1.39144 0.822578 0.71477 -0.0758207 1.05188 -0.339388 0.71693 1.22598 -1.67159 1.18398 0.134448 0.361667 -0.310882 2.44624 1.57791 -0.567471 2.63225 -0.215917 -0.117448 1.01038 1.00368 -1.48241 -0.630789 0.228421 1.14691 0.572111 0.687544 -0.050253 -0.834037 1.00716 -0.402336 -3.55246 -0.962959 -0.213077 -0.209242 0.821509 -0.363133 0.431622 -1.48086 -0.370602 -1.30652 -0.0892798 -0.0185873 0.372625 2.00074 -0.880915 -0.96764 0.872819 -0.106808 1.2628 -0.175739 -0.422819 1.80151 1.58577 -1.59468 0.365429 -1.03195 -0.850073 1.77083 0.711625 1.10678 0.0117602 -0.439915 0.434477 0.528267 -0.651293 0.740225 -0.994838 -1.10366 -0.311739 -1.06459 0.629019 -0.0964388 -0.487406 0.331829 0.511746 -0.0635179 -0.742229 -0.0920366 0.494792 -0.937655 1.84478 -0.343901 0.667561 0.385115 0.135273 0.630121 1.51037 -0.528439 -0.638902 -0.789839 -0.337795 -0.23727 1.02654 -1.69353 -0.698657 -0.964556 2.48623 0.67515 0.448765 -0.2395 -1.19789 1.38119 2.81938 -0.423731 0.191288 -1.40825 -0.263035 -0.339059 2.07463 -1.42091 -0.10892 -0.184271 0.402692 -2.08977 1.26486 -0.406819 -0.00307957 0.604597 -1.59838 0.111559 0.636641 -0.767186 -0.116283 0.971722 1.39343 0.191986 -0.379635 -2.04766 2.11967 0.0763527 1.18508 -0.715097 -1.65471 0.610878 -0.55461 1.33482 0.499533 -0.402158 2.04865 0.61139 -1.19292 0.787399 0.807592 -0.0347981 -1.10432 -0.0437259 0.1596 0.549616 0.46472 0.817513 -0.575173 -0.0493833 -0.0620868 -0.351888 0.0574335 1.57872 0.188805 1.05411 -0.556123 0.507701 -1.10061 0.517489 -0.602767 -1.00827 -0.525038 -2.17389 -0.586572 -1.50264 -0.373594 -0.568813 -0.695538 2.532 -0.779604 1.03385 1.3551 -0.464618 -1.4836 -1.34815 -0.475056 -1.20998 -0.0904028 -0.893441 -0.814679 0.610226 1.12279 0.0068959 2.14483 0.776168 -0.34777 0.956311 1.88098 1.35523 -1.10408 -0.253205 0.694928 0.775925 0.366484 2.31257 0.578697 -0.78654 -0.771918 -0.912491 -0.697096 0.902612 -0.647451 -0.568934 -0.217034 0.517675 0.194092 -0.36895 -0.432787 0.0533445 0.0402865 -0.121961 0.381064 0.492413 0.452332 0.293495 -1.20814 -0.245848 -0.00545351 -0.0816263 -0.12484 1.06642 0.720246 0.157197 -1.3931 -0.63147 0.404599 0.430994 0.72538 1.24515 0.922849 -1.26668 0.833979 -0.631883 -0.369418 0.257054 -0.714311 -1.58855 1.55883 1.81152 -0.569676 0.67203 -0.790632 -0.525717 -0.856244 0.0129624 1.14179 0.569607 -1.00762 0.0263274 1.32071 0.963375 -2.33612 0.417334 0.0472234 0.661679 -2.89731 1.86946 -0.571162 0.0538339 -0.764126 -2.31122 -0.615987 0.4271 -0.627352 -0.201008 1.8706 2.02681 0.000278545 -0.158149 2.10465 0.968212 0.402948 -0.816532 0.383102 0.622119 -0.518866 0.519916 -0.334839 0.156907 0.256147 0.00616296 0.574284 -1.14644 -2.13668 0.866234 -0.343364 -1.3541 -0.0984828 -1.05125 0.261591 0.497505 0.87706 0.344155 -1.24171 1.02873 2.18867 -1.9347 1.43552 1.04975 -1.46057 0.103047 -1.03445 -0.12672 1.36082 0.287355 -0.981111 0.257737 0.254978 1.38463 1.73785 0.908449 0.913103 -0.601847 0.371401 -1.72387 -0.308538 -0.140983 -0.773193 -1.57561 0.108129 0.400383 1.34461 -0.233664 -0.117039 -1.76251 0.355308 0.0624274 -0.83233 1.26546 -0.190906 -2.19209 -1.29543 -1.2985 1.1244 0.44943 -0.587702 -0.702947 0.572973 -0.49228 -0.453682 0.112116 -1.14888 -0.0732397 1.47862 0.883397 0.410829 0.446251 0.746403 -0.177869 -1.3465 1.85574 -1.34907 1.48128 -0.54199 0.934124 -0.102668 0.100146 -0.873611 -0.0514103 2.05017 -1.38276 -0.697111 -1.30887 0.0409262 0.914923 -0.748033 0.765115 0.120313 0.983716 -1.41377 0.29749 -0.430836 1.29538 0.644063 -0.371872 1.03148 0.524141 0.148763 0.144606 -0.639321 1.24473 -0.589608 -1.41017 -0.902152 -2.05965 -0.700183 0.0722365 -0.842173 -0.297175 0.265345 1.0498 -0.687396 -1.25054 0.843328 -0.210124 0.0688441 2.04407 0.382281 -2.2814 1.35505 0.190307 2.462 0.0531935 1.18094 1.09058 -0.900023 1.11424 -0.447783 1.69554 -0.408862 0.274632 0.582379 -1.0324 -0.905674 -0.919452 0.0486769 -0.354897 0.983218 0.0674626 -0.695083 0.600404 0.809305 1.01158 -1.2926 1.09678 0.991145 -0.473038 1.37074 -0.494738 0.386245 -0.722398 -1.56746 0.207908 -0.760753 -0.246385 -0.491992 1.72771 -0.741003 -1.05686 -0.593267 -0.884599 -1.58956 -0.457233 0.327831 -0.532145 0.863362 -0.933371 0.210816 0.205639 1.78252 -0.399064 0.221877 -0.537477 -0.550248 1.4764 0.154705 -1.10951 0.0274896 1.03288 0.691227 1.06297 -0.993139 0.295771 1.58367 1.30894 1.47187 1.49613 1.40168 0.761674 0.297926 -1.2087 -0.498992 -1.03836 0.746745 0.757326 1.67234 -1.50174 0.511441 2.50304 0.431976 -0.0383022 -0.71492 0.264261 0.140942 0.191451 -1.01934 -0.710888 1.79174 -0.99274 -1.21157 -0.446089 -0.0370164 1.19038 2.61533 1.29845 -0.412801 -0.000213158 0.865168 -0.415752 -0.882989 0.191547 1.36463 -0.240969 0.136877 -0.445103 1.63474 0.727719 -1.69862 1.35038 -1.53543 -0.688797 0.272026 0.902351 -0.21396 0.379448 0.757154 1.42632 -0.174963 0.50219 0.268738 -1.51174 -1.26897 0.647154 0.0436386 -0.798336 -0.821793 0.964687 -0.104568 1.55517 -0.0676794 -1.34612 0.68299 -0.679347 0.0909022 -0.450888 -0.539235 -1.21796 1.01197 0.347198 -0.548098 -0.83833 1.34541 2.70838 1.69806 0.752828 -1.15753 -0.279588 -0.814146 -1.34938 2.23954 -0.800936 -0.103794 -1.38861 0.933605 0.506456 0.16431 1.4187 1.09203 -0.99401 0.765027 -0.3863 -0.109146 1.22839 -1.57773 0.3065 0.300795 0.352629 1.22496 -0.407042 -0.596163 -2.21242 3.71795 -1.37942 -0.746902 0.566748 0.687476 -0.327996 0.391827 0.0559568 -0.702087 1.38789 1.19316 -0.824508 0.919509 1.01732 -0.191724 -0.0911812 -0.0659713 1.03048 -0.928767 1.225 0.148915 -2.38959 0.128641 -0.250181 0.275507 1.27269 -0.476776 1.36318 -0.442417 -1.10059 0.37513 0.73585 1.28346 0.195264 -0.607418 0.628052 0.954626 0.0494355 -1.29004 0.226881 0.184475 -0.0310232 0.303027 -0.285953 0.404227 1.36044 0.730627 0.26324 0.848255 0.263019 1.12585 0.876505 0.286282 1.4094 1.81359 0.589963 0.758094 0.431335 1.22489 0.827598 -0.0360905 0.178733 1.74453 -0.317769 1.21029 2.90006 -0.388454 0.623882 0.0552062 0.726867 1.42664 -1.6868 -0.745074 0.372609 0.496353 -0.482954 0.555358 -0.501749 -1.42051 -0.137199 0.420132 0.46737 -0.169048 -0.637798 0.89376 -0.268459 0.103879 0.83366 -0.132347 -0.0103609 -0.0714768 0.299771 0.464348 1.38484 0.495812 -0.597172 0.541428 -0.169685 -0.180227 -0.404616 2.89725 -0.59358 1.38655 0.629249 0.634573 -1.73667 -0.365393 -1.77233 0.390349 -0.521275 0.215953 -0.977644 0.38195 -0.665712 0.150909 -0.332831 -0.316213 -1.09687 1.50586 -0.0817624 1.13768 0.363268 -0.145646 -0.89074 1.34266 0.401831 -0.0762812 0.0708251 -0.807655 1.46005 -0.760626 0.720996 -0.59218 -0.104347 -1.84572 -0.361147 -0.30134 0.675904 1.40637 0.174694 -0.835908 -0.294721 -0.599813 -0.937209 -1.225 1.33932 0.795937 0.31821 0.104817 0.53494 0.315862 -0.442318 -0.562226 0.203575 -0.128783 0.85267 0.0638489 1.10749 -0.824615 -0.357751 0.288984 -0.0170255 1.16985 1.14716 -0.354503 0.465605 0.491294 0.346965 -0.362596 -1.11137 0.284968 0.394228 0.927295 -0.688577 0.497055 0.56578 -1.13343 -2.08151 -0.677197 -0.491395 0.360476 -0.681155 -0.204473 1.93643 -0.289722 -0.305508 -0.850221 1.63794 0.0587014 -2.40789 -0.565697 0.690086 -0.609319 2.38284 0.62324 1.79755 1.05616 0.452212 1.4437 0.831775 0.379147 -0.0987155 -1.43893 0.323566 -1.25966 0.733383 -0.45289 -0.672882 -1.01 1.20844 0.664893 1.34062 -0.354277 -1.34682 -0.349568 -0.637208 -0.325719 -0.871003 0.0983126 -0.180943 -0.820165 1.51986 -1.52111 -2.5329 0.985091 0.507761 1.20126 -0.263295 -0.348686 -0.782049 0.493055 0.760056 -2.41157 -0.141954 0.602901 -0.384178 -0.16759 0.849937 -1.32903 -2.02828 -0.334534 1.67784 -2.11797 -1.32087 -0.304935 1.06968 -0.210908 0.647787 -0.51319 -0.364785 1.91624 0.685695 -0.207081 1.28585 0.857861 -0.512767 1.39244 0.462865 2.17086 -1.93195 -1.18947 -0.0332306 0.501161 0.284062 -1.47701 1.76736 1.99095 0.52415 -1.93031 -1.24492 -1.8547 1.42533 4.07734 0.462836 -0.792004 -0.330898 -1.06904 -2.18453 -0.273522 1.78188 0.658016 -0.3489 0.79029 -2.36159 0.304301 -0.761877 -2.40203 0.589531 -1.91406 0.408055 -1.32338 0.890215 0.846108 0.188815 1.16219 -0.408564 0.298034 0.342794 -0.904119 0.423336 1.35483 1.45396 0.123298 -0.230407 0.597573 1.18088 0.162874 -0.740981 -0.0931842 -1.57953 0.314403 0.147103 0.399655 0.611536 -1.33385 -0.307396 -0.123589 -0.246363 1.61366 0.427942 0.755076 -0.257914 0.465562 0.307079 -0.0633425 -1.98016 -2.65802 -0.0723085 -1.21954 0.130552 0.119367 -2.70875 -0.519712 0.0736706 -0.828852 -1.42954 -0.244496 -0.922549 1.0889 -1.21757 1.28331 0.803067 1.53297 0.401562 0.00239849 -0.771001 -1.15142 1.20058 0.475355 -1.28831 -0.684232 -0.354317 0.0170649 -1.52235 0.42122 -1.3299 -0.735541 -1.66902 0.281384 -1.60614 -0.947724 0.552936 0.155938 1.26731 -2.08861 -0.550878 1.41468 -1.07576 -0.588017 -0.511457 1.86661 -1.41087 -0.11231 -1.01903 -0.871098 0.948436 1.13281 0.666526 -1.61086 1.41291 0.907178 -2.29536 1.2072 -0.254943 0.396852 -1.06658 -0.055925 0.845392 2.50155 -2.23426 -0.247718 0.166265 0.471753 0.549402 -0.558675 1.31739 0.0458181 2.60466 -0.547549 -0.714845 -1.47457 0.359608 1.16382 0.159824 -1.00432 -0.676764 -0.0519768 3.47233 -0.246534 0.0496242 -1.5544 1.53395 1.59154 0.552054 0.165327 -0.0207925 0.550489 -0.452529 0.59465 1.81875 0.332875 0.31627 -0.731158 0.969312 -0.53197 -1.52331 -0.428321 -0.115063 0.27645 -0.0848554 -0.936775 -0.517639 1.54545 0.384645 1.08645 0.821424 0.940142 -0.590238 1.40845 -0.379109 1.6575 -0.460568 0.0499581 -0.542718 -0.401701 -0.000985044 0.253367 -0.920918 -0.201076 0.334333 0.386645 0.781301 0.645932 0.0305211 -0.450267 -0.349922 1.81713 -0.0740421 -0.649942 -0.767299 1.07198 1.76747 0.350703 0.145773 0.0906971 -0.658541 1.08519 1.48442 0.802495 1.41075 -0.514885 1.59823 1.1486 0.633236 -0.341327 0.522922 -0.853547 -0.592899 -1.35531 1.23171 0.495373 1.69317 0.941813 1.19047 -0.0682217 -0.901262 -1.2126 -0.480578 0.282975 -0.664688 -0.748697 1.92827 -1.19611 -1.94548 0.0169151 1.64804 0.931628 0.657552 -0.75667 1.70128 -1.85985 -0.449612 -1.15149 0.644434 0.552561 -1.45967 0.758865 2.2499 0.062789 1.80368 0.726734 1.06524 -0.876455 0.995551 -0.416906 -1.46053 1.42976 -1.3943 -0.425341 -1.73605 0.258074 -0.817755 -0.773836 -0.503684 -0.474947 0.163282 -2.20539 0.193915 0.722626 0.264274 -0.486819 -0.217732 1.33139 0.0104201 -0.0970244 -0.742271 1.04587 0.281057 2.53101 -0.618707 -1.99008 1.08865 0.917698 -0.609377 1.52756 -0.227237 -2.07812 0.511904 -0.385409 -1.40315 -0.458225 -0.584945 -1.38536 0.234913 -1.88615 1.76625 -0.465103 -1.18901 -0.225941 -0.452394 -1.8197 0.665965 -1.05461 1.17243 -0.576339 -0.646342 1.13993 -0.782114 -2.56573 1.40631 1.28555 -1.37145 -0.486546 -0.341138 0.584376 -1.18234 2.33339 1.19636 0.303322 0.67222 0.207378 0.174533 -0.797468 -1.10429 1.28858 -0.742454 0.412492 -0.279611 0.534177 0.587479 -0.403375 -0.905381 0.647427 -2.5303 -0.62037 -0.430644 -3.02654 -1.38403 1.42163 -1.66558 -0.430471 1.38789 -2.31076 -0.663918 -1.89268 -0.437053 -0.0293014 2.00331 0.605409 0.124231 -0.704864 -2.35762 0.712502 -1.1828 -0.743429 -0.303446 -0.617477 -0.24507 -0.0114317 -1.45247 -0.179588 1.2888 0.353997 -0.890044 -0.16989 0.796409 1.40886 -1.77342 -0.70569 -0.990786 1.31897 -0.724378 -0.781093 -1.58241 -0.0633349 -0.85065 -0.529697 1.56675 -1.28501 0.0650084 1.60827 -0.413485 -0.971195 0.152588 -0.820222 0.137188 -0.727404 0.846502 0.810756 0.163268 -0.0308609 0.00761377 0.455556 -1.02106 1.45356 0.0453707 0.202223 -0.0539608 1.64382 0.672053 -1.53157 0.365513 0.785839 -1.09977 1.21277 1.01031 -0.377393 1.36273 -0.66267 1.90055 0.633166 0.489178 -0.913341 -2.16942 1.91351 1.68608 0.370059 1.10963 -1.13146 -1.97799 0.687851 -1.39479 -0.158416 0.695891 2.46064 -1.62847 -0.613834 -0.050687 -0.554132 -0.459665 0.195557 -0.261453 1.27356 0.564939 1.3912 1.24051 0.639172 -1.50297 0.443289 -0.377653 0.706623 0.0918445 1.12737 -2.75336 -1.48695 1.39079 0.491047 -0.383373 0.277231 -1.33112 -0.40377 -1.029 0.227765 -1.34976 0.699718 0.517541 1.31305 0.370402 0.38092 -0.522149 1.19323 -0.117128 -0.381837 0.022056 2.20952 -0.655226 -0.132684 -0.937654 -1.41425 0.607843 2.25155 0.207209 -0.407709 0.155418 0.32989 -1.48161 1.19704 -0.457062 -0.099312 -0.230936 -0.465075 -0.661819 0.586258 -0.212485 0.354446 -0.267973 -0.520235 0.0130748 0.78658 -1.20209 0.696531 -1.00141 0.671996 0.722204 -0.950612 -0.0640456 -1.00141 0.451832 0.148589 -2.18396 0.54913 0.0513743 0.856401 2.60842 0.424259 1.29446 -1.12557 -0.160898 -0.832339 0.540331 0.106165 -0.588195 0.443538 -0.428705 -1.08334 -0.785298 -0.1388 -0.506839 -0.49603 -0.299984 -0.408669 -0.0656997 -0.789979 0.949976 0.772816 -1.20918 1.29022 1.04207 0.569174 -1.8834 -1.17443 1.3349 0.939982 0.460823 -0.456147 -0.431219 -0.482283 0.23978 1.83389 -0.0425181 -0.863479 0.831843 -0.255008 0.759344 -0.288076 -0.211485 -0.160031 -0.617184 -0.777983 -0.202614 0.428045 -1.27352 -0.674337 -0.394423 1.5318 -1.51015 -0.142152 -0.534443 1.51319 -0.220013 0.689093 2.11125 -0.563677 0.0417012 0.857418 -0.136639 1.76107 -0.879104 -1.15377 0.952041 -0.485743 -0.0614988 -1.15793 -1.48482 -0.449319 -1.448 0.560872 -0.199405 -0.628009 -1.13503 1.59785 1.37637 0.535378 1.67073 -0.665477 0.805933 -0.338128 -0.109839 1.40415 0.361317 -0.0757259 -0.978677 1.5521 0.853289 1.13572 3.06184 0.674079 -1.01457 -0.206577 1.00229 -1.8133 -1.11731 1.11257 -0.938283 0.827604 1.52397 0.845385 -0.210565 0.94666 -2.45435 0.276897 1.83897 -0.325633 -0.139604 2.19806 3.6331 0.809453 0.356907 -0.12714 1.1753 0.500098 0.713575 -0.919676 0.586272 -0.251144 -0.741075 0.279268 0.650729 -0.760048 -1.6101 0.555345 -0.250216 -0.667357 -0.482272 1.28806 0.302344 -1.06367 1.17259 1.18165 0.824098 -0.552031 0.230035 -0.6158 1.07355 -1.59675 1.7674 0.127773 -0.0986235 1.51116 1.03787 0.641932 -0.149501 0.848145 -1.55675 0.207616 -1.25532 -0.119019 0.24157 -0.914069 0.566279 -0.85813 -1.31813 1.08826 -0.217664 -0.0627575 -1.05194 -0.0419703 -0.184643 0.858272 0.863161 -0.124043 0.528527 0.306985 1.80086 -0.217195 -0.498015 0.0352033 1.57878 1.46494 -2.26545 0.267228 0.726289 -0.975495 0.339577 -0.368123 0.889668 -0.0786416 -0.852199 -0.667034 -0.26099 -0.924389 1.16366 0.19274 0.406006 -0.884219 0.144381 -0.310703 -0.455182 0.98512 -1.07533 0.0197043 -1.15163 -1.38987 0.372634 -1.01652 0.249117 -0.781948 -0.0355282 1.35506 -0.768119 -0.21394 -0.78017 1.35132</Parameters>
    </MultilayerPerceptron>
    <UnscalingLayer>
        <UnscalingNeuronsNumber>1</UnscalingNeuronsNumber>
        <Statistics Index="1">
            <Minimum>-2.74885</Minimum>
            <Maximum>2.36526</Maximum>
            <Mean>0.00510962</Mean>
            <StandardDeviation>0.540966</StandardDeviation>
        </Statistics>
        <UnscalingMethod>MinimumMaximum</UnscalingMethod>
    </UnscalingLayer>
    <Outputs>
        <OutputsNumber>1</OutputsNumber>
        <Item Index="1">
            <Name>command_pitch</Name>
            <Units>radiants</Units>
            <Description></Description>
        </Item>
    </Outputs>
</NeuralNetwork>
