<NeuralNetwork>
    <Inputs>
        <InputsNumber>9</InputsNumber>
        <Item Index="1">
            <Name>error_x</Name>
            <Units>meters</Units>
            <Description></Description>
        </Item>
        <Item Index="2">
            <Name>error_x_old</Name>
            <Units>meters</Units>
            <Description></Description>
        </Item>
        <Item Index="3">
            <Name>error_x_old_old</Name>
            <Units>meters</Units>
            <Description></Description>
        </Item>
        <Item Index="4">
            <Name>d_error_x</Name>
            <Units>meters per second</Units>
            <Description></Description>
        </Item>
        <Item Index="5">
            <Name>d_error_x_old</Name>
            <Units>meters per second</Units>
            <Description></Description>
        </Item>
        <Item Index="6">
            <Name>d_error_x_old_old</Name>
            <Units>meters per second</Units>
            <Description></Description>
        </Item>
        <Item Index="7">
            <Name>roll</Name>
            <Units>radiants</Units>
            <Description></Description>
        </Item>
        <Item Index="8">
            <Name>pitch</Name>
            <Units>radiants</Units>
            <Description></Description>
        </Item>
        <Item Index="9">
            <Name>yaw</Name>
            <Units>radiants</Units>
            <Description></Description>
        </Item>
    </Inputs>
    <ScalingLayer>
        <ScalingNeuronsNumber>9</ScalingNeuronsNumber>
        <Statistics Index="1">
            <Minimum>-2.86302</Minimum>
            <Maximum>2.66097</Maximum>
            <Mean>0.0250044</Mean>
            <StandardDeviation>1.13531</StandardDeviation>
        </Statistics>
        <Statistics Index="2">
            <Minimum>-2.86302</Minimum>
            <Maximum>2.66097</Maximum>
            <Mean>0.0250869</Mean>
            <StandardDeviation>1.1353</StandardDeviation>
        </Statistics>
        <Statistics Index="3">
            <Minimum>-2.86302</Minimum>
            <Maximum>2.66097</Maximum>
            <Mean>0.0251694</Mean>
            <StandardDeviation>1.13528</StandardDeviation>
        </Statistics>
        <Statistics Index="4">
            <Minimum>-2.19124</Minimum>
            <Maximum>2.25014</Maximum>
            <Mean>0.0192695</Mean>
            <StandardDeviation>1.10687</StandardDeviation>
        </Statistics>
        <Statistics Index="5">
            <Minimum>-2.19124</Minimum>
            <Maximum>2.25014</Maximum>
            <Mean>0.0191231</Mean>
            <StandardDeviation>1.10682</StandardDeviation>
        </Statistics>
        <Statistics Index="6">
            <Minimum>-2.19124</Minimum>
            <Maximum>2.25014</Maximum>
            <Mean>0.0189768</Mean>
            <StandardDeviation>1.10676</StandardDeviation>
        </Statistics>
        <Statistics Index="7">
            <Minimum>-0.813125</Minimum>
            <Maximum>0.761562</Maximum>
            <Mean>-0.0049412</Mean>
            <StandardDeviation>0.26498</StandardDeviation>
        </Statistics>
        <Statistics Index="8">
            <Minimum>-0.690898</Minimum>
            <Maximum>0.560815</Maximum>
            <Mean>-0.00124446</Mean>
            <StandardDeviation>0.248423</StandardDeviation>
        </Statistics>
        <Statistics Index="9">
            <Minimum>-0.184288</Minimum>
            <Maximum>0.203575</Maximum>
            <Mean>-0.0216816</Mean>
            <StandardDeviation>0.0573263</StandardDeviation>
        </Statistics>
        <ScalingMethod>MinimumMaximum</ScalingMethod>
    </ScalingLayer>
    <MultilayerPerceptron>
        <Architecture>9 9 9 9 1</Architecture>
        <LayersActivationFunction>HyperbolicTangent HyperbolicTangent HyperbolicTangent Linear</LayersActivationFunction>
        <Parameters>-0.893498 0.513864 -0.44577 -0.516757 -0.0703694 -0.339723 -0.154111 0.84034 0.478761 -0.639807 -0.769268 -0.305963 -0.151439 -0.50004 -0.797292 -0.821107 -0.753058 0.355266 0.949632 0.0628319 0.425445 0.377036 0.313141 -0.0350586 -0.139773 -0.188774 0.153657 0.438827 0.436624 0.618198 0.204584 -0.636557 -0.849265 0.0333078 -0.188844 -0.0259232 -0.43932 0.683572 -0.370367 -0.68271 -1.34243 -0.24588 -0.315241 -0.679903 0.160766 -0.370571 -0.0937331 -0.234184 -0.116351 0.148926 0.0749011 -0.332354 0.403449 0.160997 -0.420633 -0.489031 -0.310219 -1.16862 -1.41987 1.23684 0.954601 0.617611 0.00299432 -1.22202 -0.552885 -0.295164 -0.177953 0.684309 -0.242 0.00959432 -1.37803 -0.395615 -0.154346 -0.214303 0.0182215 -0.00144107 -0.292369 -0.247263 0.253068 0.0138196 0.0328469 -1.52734 -1.07176 0.650985 -0.171984 0.401879 -0.387376 -0.410985 0.148632 0.616835 0.321863 0.86879 -0.806955 -0.296808 -0.19107 0.287123 -0.158894 0.821748 0.289529 0.188437 0.329982 -0.14232 -0.351385 0.6824 0.81246 0.167745 0.824865 0.0441101 -0.0162687 0.268441 0.358896 -0.693754 0.123546 0.522802 -1.18984 -0.478399 0.600872 0.694517 0.237339 -0.0146262 0.213513 1.02394 -1.83055 0.145387 -1.30266 -0.708786 -0.987187 -0.3252 -1.03326 -1.186 0.0711656 -0.822338 -0.951943 1.18097 -0.0686585 0.362574 -0.126105 -0.151633 -0.291589 -0.823727 -0.470561 0.328729 0.261204 -0.0932014 -0.231064 -0.373328 0.242307 -0.143148 0.469446 0.427852 -0.207762 0.913446 -0.4622 0.311479 -0.261835 0.551939 -0.122842 -0.991259 0.316578 -0.957064 -0.214404 -0.635495 -0.0607975 -0.0989453 0.787833 0.129884 -0.498426 -0.0277108 -0.607341 1.29957 -0.304007 0.0631156 -0.124512 -0.280103 0.283972 0.461298 0.439993 -0.503221 0.413372 -0.394816 0.121241 0.952216 0.411737 -0.0449791 0.963171 -0.30321 -0.573262 -0.348143 0.56959 0.122583 0.124559 -0.240592 -0.211062 -0.161954 -0.186731 -0.291118 0.0645296 1.00181 0.037296 0.366624 0.108829 -0.694563 -0.258274 0.462443 0.389907 0.184597 -0.172949 0.658985 0.991127 -0.0988139 0.0900239 -0.569125 0.867522 -0.536387 -0.138817 -1.0092 0.547957 -0.302735 1.11456 -0.0136919 -0.382574 0.0824959 0.430012 -0.214831 -0.222044 0.464282 -0.814948 -0.521898 -0.0754959 0.121575 -0.329809 -0.0341454 0.520841 0.78575 -0.0247145 -0.00718254 -0.318903 -0.754433 0.42006 -0.578596 -0.14376 -0.1173 -0.0879627 -0.438135 -1.02243 0.0953696 -0.128522 -0.547469 0.0110069 0.702637 0.353086 -1.09143 0.884804 0.278744 -0.39931 0.243695 0.0372985 -0.487731 -0.338535 -0.527952 0.264909 0.154 -0.308228 -0.397041 0.671043 -0.360512 -0.285592 -0.0128807 -0.662551 -0.142359 0.479547 -0.408274 -0.518178 0.801912 -0.374255 -0.329364 -1.03823 0.605734 0.405771 0.443245</Parameters>
    </MultilayerPerceptron>
    <UnscalingLayer>
        <UnscalingNeuronsNumber>1</UnscalingNeuronsNumber>
        <Statistics Index="1">
            <Minimum>-3.66672</Minimum>
            <Maximum>4.22031</Maximum>
            <Mean>0.017464</Mean>
            <StandardDeviation>1.65509</StandardDeviation>
        </Statistics>
        <UnscalingMethod>MinimumMaximum</UnscalingMethod>
    </UnscalingLayer>
    <Outputs>
        <OutputsNumber>1</OutputsNumber>
        <Item Index="1">
            <Name>command_x</Name>
            <Units>meters per second</Units>
            <Description></Description>
        </Item>
    </Outputs>
</NeuralNetwork>
