<NeuralNetwork>
    <Inputs>
        <InputsNumber>9</InputsNumber>
        <Item Index="1">
            <Name>error_x</Name>
            <Units>meters</Units>
            <Description></Description>
        </Item>
        <Item Index="2">
            <Name>error_x_old</Name>
            <Units>meters</Units>
            <Description></Description>
        </Item>
        <Item Index="3">
            <Name>error_x_old_old</Name>
            <Units>meters</Units>
            <Description></Description>
        </Item>
        <Item Index="4">
            <Name>d_error_x</Name>
            <Units>meters per second</Units>
            <Description></Description>
        </Item>
        <Item Index="5">
            <Name>d_error_x_old</Name>
            <Units>meters per second</Units>
            <Description></Description>
        </Item>
        <Item Index="6">
            <Name>d_error_x_old_old</Name>
            <Units>meters per second</Units>
            <Description></Description>
        </Item>
        <Item Index="7">
            <Name>roll</Name>
            <Units>radiants</Units>
            <Description></Description>
        </Item>
        <Item Index="8">
            <Name>pitch</Name>
            <Units>radiants</Units>
            <Description></Description>
        </Item>
        <Item Index="9">
            <Name>yaw</Name>
            <Units>radiants</Units>
            <Description></Description>
        </Item>
    </Inputs>
    <ScalingLayer>
        <ScalingNeuronsNumber>9</ScalingNeuronsNumber>
        <Statistics Index="1">
            <Minimum>-0.879388</Minimum>
            <Maximum>0.550964</Maximum>
            <Mean>-0.00689807</Mean>
            <StandardDeviation>0.153107</StandardDeviation>
        </Statistics>
        <Statistics Index="2">
            <Minimum>-0.879388</Minimum>
            <Maximum>0.550964</Maximum>
            <Mean>-0.0069045</Mean>
            <StandardDeviation>0.153106</StandardDeviation>
        </Statistics>
        <Statistics Index="3">
            <Minimum>-0.879388</Minimum>
            <Maximum>0.550964</Maximum>
            <Mean>-0.00691093</Mean>
            <StandardDeviation>0.153105</StandardDeviation>
        </Statistics>
        <Statistics Index="4">
            <Minimum>-1.68393</Minimum>
            <Maximum>1.00038</Maximum>
            <Mean>-0.00355519</Mean>
            <StandardDeviation>0.333209</StandardDeviation>
        </Statistics>
        <Statistics Index="5">
            <Minimum>-1.68393</Minimum>
            <Maximum>1.00038</Maximum>
            <Mean>-0.00352874</Mean>
            <StandardDeviation>0.333203</StandardDeviation>
        </Statistics>
        <Statistics Index="6">
            <Minimum>-1.68393</Minimum>
            <Maximum>1.00038</Maximum>
            <Mean>-0.00350228</Mean>
            <StandardDeviation>0.333197</StandardDeviation>
        </Statistics>
        <Statistics Index="7">
            <Minimum>-0.813125</Minimum>
            <Maximum>0.761562</Maximum>
            <Mean>-0.0049412</Mean>
            <StandardDeviation>0.26498</StandardDeviation>
        </Statistics>
        <Statistics Index="8">
            <Minimum>-0.690898</Minimum>
            <Maximum>0.560815</Maximum>
            <Mean>-0.00124446</Mean>
            <StandardDeviation>0.248423</StandardDeviation>
        </Statistics>
        <Statistics Index="9">
            <Minimum>-0.184288</Minimum>
            <Maximum>0.203575</Maximum>
            <Mean>-0.0216816</Mean>
            <StandardDeviation>0.0573263</StandardDeviation>
        </Statistics>
        <ScalingMethod>MinimumMaximum</ScalingMethod>
    </ScalingLayer>
    <MultilayerPerceptron>
        <Architecture>9 9 9 9 1</Architecture>
        <LayersActivationFunction>HyperbolicTangent HyperbolicTangent HyperbolicTangent Linear</LayersActivationFunction>
        <Parameters>-0.244518 -0.338603 -0.0736894 0.16663 -0.184506 0.0451647 0.0851537 -0.0966001 0.040296 0.16814 -0.558427 -0.273479 -0.247212 -0.0259538 -0.0857284 0.0229868 -0.0464679 0.151007 0.0479031 -0.163221 -0.487664 -0.18939 -0.390765 0.667611 0.513986 -0.0338116 -0.0153623 0.0473322 0.124043 0.0233463 -0.376816 -0.33906 -0.265045 -0.320869 0.163828 0.16261 0.184149 0.0215331 0.16847 0.130871 -0.288061 -0.0166166 -0.179084 0.0224887 0.171375 0.0224135 -0.0169196 -0.118841 -0.0391116 0.0268317 -0.129522 -0.0897246 -0.0929773 -0.254387 0.280959 0.338118 0.145138 -0.048537 -0.0454907 -0.20298 0.156528 -0.41995 -0.253011 0.229883 -0.325107 0.0469737 -0.0139942 0.0183578 -0.283142 -0.129162 -0.292533 -0.0503789 0.167377 0.649448 -0.0734334 0.268367 -0.138657 -0.0189817 -0.0736695 -0.0152052 0.430289 -0.178264 0.013557 -0.284682 0.21986 0.257841 0.467584 -0.153182 0.0162696 -0.139108 -0.120876 0.28818 0.388002 0.0781817 0.424722 0.396333 -0.0813988 0.474364 -0.159996 -0.26818 -0.029609 0.148968 0.249743 0.0149565 -0.0123761 0.0729964 -0.305791 0.0586544 -0.34618 0.0350377 0.0310289 -0.0931027 0.0904701 -0.187546 -0.0598253 0.13303 0.0847454 -0.170945 -0.532504 0.274977 -0.00938906 -0.157197 -0.209678 -0.18699 0.496726 0.243989 0.302228 -0.0901441 -0.0775424 0.157018 0.0251983 -0.143816 -0.00883922 -0.0612226 -0.0468538 -0.18912 0.256308 -0.0372909 -0.0609991 0.0730937 -0.0600477 -0.307144 0.0125818 -0.100795 0.116517 -0.172152 -0.0224041 -0.00404633 -0.0751905 0.00350757 0.119731 0.120791 -0.179232 -0.0355916 -0.00543858 -0.122693 0.339875 0.106746 -0.0359703 -0.0475775 -0.0875854 -0.205327 0.0818156 0.49202 -0.0509436 0.285906 -0.237677 -0.0923721 0.503254 0.069004 0.332223 -0.275728 -0.159109 -0.40369 0.347069 -0.0894468 -0.161458 -0.177755 -0.0830499 0.0616092 0.127778 -0.648963 -0.223845 -0.420857 0.219049 0.0512595 -0.0377427 0.173655 0.0821793 -0.208475 -0.0368953 -0.0108199 0.364873 -0.197538 -0.170961 -0.0682685 -0.304463 -0.286915 1.09206 -0.270948 -0.096427 0.148961 0.186502 -0.10291 -0.0402908 -0.227985 -0.164488 -0.0618232 0.174959 0.0147834 -0.0711963 -0.156285 -0.276765 0.146926 -0.0439951 0.175085 0.105565 -0.0499499 0.149825 -0.00937255 0.199462 -0.365135 -0.0583017 -0.033191 0.0523654 -0.0446226 0.0561078 0.113396 -0.0317846 0.152511 0.066173 -0.225107 -0.0200498 -0.229054 -0.0111835 0.115566 -0.0608023 0.119463 0.106241 0.0791437 0.165948 -0.054839 0.239986 0.306735 0.236157 0.0206066 -0.0156071 0.0883537 -0.414708 0.199639 -0.126279 0.0201436 0.0346698 -0.122759 0.131654 0.0168514 -0.0221965 -0.165637 0.252073 -0.103512 -0.222123 0.0991186 0.125697 -0.0786648 0.0767932 -0.0872432 -0.0618351 -0.0754575 0.0845594 -0.187038 0.248186 0.908075 0.854284 -0.123458 0.337397 0.375127 0.295519 -0.237456 0.0628452 -0.0982533</Parameters>
    </MultilayerPerceptron>
    <UnscalingLayer>
        <UnscalingNeuronsNumber>1</UnscalingNeuronsNumber>
        <Statistics Index="1">
            <Minimum>-4.05772</Minimum>
            <Maximum>1.88463</Maximum>
            <Mean>-0.0287984</Mean>
            <StandardDeviation>0.57825</StandardDeviation>
        </Statistics>
        <UnscalingMethod>MinimumMaximum</UnscalingMethod>
    </UnscalingLayer>
    <Outputs>
        <OutputsNumber>1</OutputsNumber>
        <Item Index="1">
            <Name>command_x</Name>
            <Units>meters per second</Units>
            <Description></Description>
        </Item>
    </Outputs>
</NeuralNetwork>
