<NeuralNetwork>
    <Inputs>
        <InputsNumber>21</InputsNumber>
        <Item Index="1">
            <Name>error_x</Name>
            <Units>meters</Units>
            <Description></Description>
        </Item>
        <Item Index="2">
            <Name>error_x_old</Name>
            <Units>meters</Units>
            <Description></Description>
        </Item>
        <Item Index="3">
            <Name>error_x_old_old</Name>
            <Units>meters</Units>
            <Description></Description>
        </Item>
        <Item Index="4">
            <Name>d_error_x</Name>
            <Units>meters per second</Units>
            <Description></Description>
        </Item>
        <Item Index="5">
            <Name>d_error_x_old</Name>
            <Units>meters per second</Units>
            <Description></Description>
        </Item>
        <Item Index="6">
            <Name>d_error_x_old_old</Name>
            <Units>meters per second</Units>
            <Description></Description>
        </Item>
        <Item Index="7">
            <Name>error_y</Name>
            <Units>meters</Units>
            <Description></Description>
        </Item>
        <Item Index="8">
            <Name>error_y_old</Name>
            <Units>meters</Units>
            <Description></Description>
        </Item>
        <Item Index="9">
            <Name>error_y_old_old</Name>
            <Units>meters</Units>
            <Description></Description>
        </Item>
        <Item Index="10">
            <Name>d_error_y</Name>
            <Units>meters per second</Units>
            <Description></Description>
        </Item>
        <Item Index="11">
            <Name>d_error_y_old</Name>
            <Units>meters per second</Units>
            <Description></Description>
        </Item>
        <Item Index="12">
            <Name>d_error_y_old_old</Name>
            <Units>meters per second</Units>
            <Description></Description>
        </Item>
        <Item Index="13">
            <Name>error_z</Name>
            <Units>meters</Units>
            <Description></Description>
        </Item>
        <Item Index="14">
            <Name>error_z_old</Name>
            <Units>meters</Units>
            <Description></Description>
        </Item>
        <Item Index="15">
            <Name>error_z_old_old</Name>
            <Units>meters</Units>
            <Description></Description>
        </Item>
        <Item Index="16">
            <Name>d_error_z</Name>
            <Units>meters per second</Units>
            <Description></Description>
        </Item>
        <Item Index="17">
            <Name>d_error_z_old</Name>
            <Units>meters per second</Units>
            <Description></Description>
        </Item>
        <Item Index="18">
            <Name>d_error_z_old_old</Name>
            <Units>meters per second</Units>
            <Description></Description>
        </Item>
        <Item Index="19">
            <Name>roll</Name>
            <Units>radiants</Units>
            <Description></Description>
        </Item>
        <Item Index="20">
            <Name>pitch</Name>
            <Units>radiants</Units>
            <Description></Description>
        </Item>
        <Item Index="21">
            <Name>yaw</Name>
            <Units>radiants</Units>
            <Description></Description>
        </Item>
    </Inputs>
    <ScalingLayer>
        <ScalingNeuronsNumber>21</ScalingNeuronsNumber>
        <Statistics Index="1">
            <Minimum>-1.50772</Minimum>
            <Maximum>1.53248</Maximum>
            <Mean>-0.0291958</Mean>
            <StandardDeviation>0.78765</StandardDeviation>
        </Statistics>
        <Statistics Index="2">
            <Minimum>-1.50772</Minimum>
            <Maximum>1.53248</Maximum>
            <Mean>-0.0289876</Mean>
            <StandardDeviation>0.787757</StandardDeviation>
        </Statistics>
        <Statistics Index="3">
            <Minimum>-1.50772</Minimum>
            <Maximum>1.53248</Maximum>
            <Mean>-0.0287793</Mean>
            <StandardDeviation>0.787864</StandardDeviation>
        </Statistics>
        <Statistics Index="4">
            <Minimum>-2.76213</Minimum>
            <Maximum>2.68783</Maximum>
            <Mean>-0.0330701</Mean>
            <StandardDeviation>1.14675</StandardDeviation>
        </Statistics>
        <Statistics Index="5">
            <Minimum>-2.76213</Minimum>
            <Maximum>2.68783</Maximum>
            <Mean>-0.033267</Mean>
            <StandardDeviation>1.14665</StandardDeviation>
        </Statistics>
        <Statistics Index="6">
            <Minimum>-2.76213</Minimum>
            <Maximum>2.68783</Maximum>
            <Mean>-0.0334639</Mean>
            <StandardDeviation>1.14656</StandardDeviation>
        </Statistics>
        <Statistics Index="7">
            <Minimum>-1.55534</Minimum>
            <Maximum>1.50572</Maximum>
            <Mean>-0.0695845</Mean>
            <StandardDeviation>0.903446</StandardDeviation>
        </Statistics>
        <Statistics Index="8">
            <Minimum>-1.55534</Minimum>
            <Maximum>1.50572</Maximum>
            <Mean>-0.0699824</Mean>
            <StandardDeviation>0.90333</StandardDeviation>
        </Statistics>
        <Statistics Index="9">
            <Minimum>-1.55534</Minimum>
            <Maximum>1.50572</Maximum>
            <Mean>-0.0703802</Mean>
            <StandardDeviation>0.903215</StandardDeviation>
        </Statistics>
        <Statistics Index="10">
            <Minimum>-3.93654</Minimum>
            <Maximum>1.75737</Maximum>
            <Mean>-0.145645</Mean>
            <StandardDeviation>1.15837</StandardDeviation>
        </Statistics>
        <Statistics Index="11">
            <Minimum>-3.93654</Minimum>
            <Maximum>1.75737</Maximum>
            <Mean>-0.145809</Mean>
            <StandardDeviation>1.1585</StandardDeviation>
        </Statistics>
        <Statistics Index="12">
            <Minimum>-3.93654</Minimum>
            <Maximum>1.75737</Maximum>
            <Mean>-0.145973</Mean>
            <StandardDeviation>1.15863</StandardDeviation>
        </Statistics>
        <Statistics Index="13">
            <Minimum>-0.544057</Minimum>
            <Maximum>0.701106</Maximum>
            <Mean>0.00514244</Mean>
            <StandardDeviation>0.282467</StandardDeviation>
        </Statistics>
        <Statistics Index="14">
            <Minimum>-0.544057</Minimum>
            <Maximum>0.701106</Maximum>
            <Mean>0.00516572</Mean>
            <StandardDeviation>0.28244</StandardDeviation>
        </Statistics>
        <Statistics Index="15">
            <Minimum>-0.544057</Minimum>
            <Maximum>0.701106</Maximum>
            <Mean>0.00518901</Mean>
            <StandardDeviation>0.282413</StandardDeviation>
        </Statistics>
        <Statistics Index="16">
            <Minimum>-0.441733</Minimum>
            <Maximum>0.711602</Maximum>
            <Mean>0.0458277</Mean>
            <StandardDeviation>0.1947</StandardDeviation>
        </Statistics>
        <Statistics Index="17">
            <Minimum>-0.441733</Minimum>
            <Maximum>0.711602</Maximum>
            <Mean>0.0458972</Mean>
            <StandardDeviation>0.194779</StandardDeviation>
        </Statistics>
        <Statistics Index="18">
            <Minimum>-0.441733</Minimum>
            <Maximum>0.711602</Maximum>
            <Mean>0.0459667</Mean>
            <StandardDeviation>0.194859</StandardDeviation>
        </Statistics>
        <Statistics Index="19">
            <Minimum>-0.347387</Minimum>
            <Maximum>0.531835</Maximum>
            <Mean>0.00135305</Mean>
            <StandardDeviation>0.210076</StandardDeviation>
        </Statistics>
        <Statistics Index="20">
            <Minimum>-0.544256</Minimum>
            <Maximum>0.481051</Maximum>
            <Mean>-0.00796697</Mean>
            <StandardDeviation>0.217757</StandardDeviation>
        </Statistics>
        <Statistics Index="21">
            <Minimum>-0.0978958</Minimum>
            <Maximum>0.00963789</Maximum>
            <Mean>-0.0455999</Mean>
            <StandardDeviation>0.0304382</StandardDeviation>
        </Statistics>
        <ScalingMethod>MinimumMaximum</ScalingMethod>
    </ScalingLayer>
    <MultilayerPerceptron>
        <Architecture>21 21 3</Architecture>
        <LayersActivationFunction>HyperbolicTangent Linear</LayersActivationFunction>
        <Parameters>0.0483858 0.119922 0.0556216 0.0921435 0.538424 -0.0271757 -9.6088e-06 -0.155417 -0.0997273 -0.00236113 -0.167603 0.040736 0.12922 -0.0373657 -0.10747 -0.0250929 -0.112642 -0.068135 0.134593 -0.0528248 0.264662 -0.152478 -0.0938735 -0.0994094 -0.0712364 -0.0903253 -0.192028 0.00429167 -0.036651 0.0516241 0.132402 0.118389 0.119789 -0.0901114 -0.0875656 0.0516612 0.00528524 -0.0791607 0.02317 -0.062546 0.123864 -0.162507 0.0557899 -0.361558 -0.421677 0.0754261 0.0465623 0.0981204 -0.00704838 -0.0530029 -0.000890388 -0.00572675 -0.12318 0.00461619 -0.39345 -0.29733 -0.331199 -0.23608 -0.138108 -0.120673 -0.0599527 -0.159769 0.0583868 0.275458 0.0738221 -0.0231531 -0.106783 -0.166808 -0.190821 -0.0664202 0.0976556 0.150029 0.149383 0.125493 0.0724784 0.178741 -0.135622 -0.110465 -0.15396 -0.00191072 -0.035949 0.0242318 0.101069 0.0240733 0.127718 -0.0575545 0.0497144 -0.118282 0.0657743 -0.118936 -0.138224 -0.0318536 0.0179654 -0.0375452 -0.0134173 0.0724909 0.156438 0.0637634 0.160022 0.253319 0.262945 -0.0110053 -0.0103822 -0.0356625 -0.363051 0.129844 -0.149384 -0.0971437 -0.0721501 0.0818886 0.688321 0.0208314 0.102461 -0.0639434 0.0567146 0.0843647 -0.120642 0.242891 0.157003 0.0721178 0.213088 -0.044812 -0.04246 0.242184 0.341495 0.219158 0.0678174 0.00308192 -0.278612 -0.165072 0.056772 0.0439737 0.101173 -0.054299 0.0742662 -0.00844416 0.302131 0.109304 0.190286 -0.0756026 -0.08258 -0.08511 0.302371 0.176673 0.191601 -0.139672 -0.17533 -0.141252 -0.270057 0.0228451 -0.0602855 -0.0941885 0.155657 0.259213 -0.0397767 -0.0888259 -0.0377674 -0.0671954 -0.0368494 -0.0532162 -0.148729 -0.0934641 -0.0688473 -0.100179 0.159226 0.0795447 0.144376 0.0743122 0.2129 0.128061 0.125553 -0.0282077 -0.0130744 0.2277 0.0884764 -0.0173414 0.246109 -0.0265152 0.0250766 0.0330195 0.109226 0.1613 0.0919426 -0.201987 -0.122565 -0.170193 -0.134175 -0.0449675 0.000499971 0.0564347 0.0743483 0.195468 0.068499 0.0490872 0.0424267 0.111616 0.00886404 -0.135931 0.193301 -0.0269529 0.0750484 -0.138055 0.244806 0.026969 0.0199808 0.0133227 -0.0633771 0.0699034 -0.174761 -0.369114 -0.291069 -0.0862341 -0.264467 -0.309996 -0.141142 0.277774 -0.0747059 0.0982942 -0.310685 -0.373685 -0.433665 0.0751454 0.168683 0.0834659 -0.324514 -0.231661 -0.0936338 0.121527 0.18053 0.0696714 0.254309 0.0157437 -0.0507268 0.18743 0.0973153 0.0465797 0.0435407 -0.139667 0.01256 -0.209769 -0.119858 0.0229489 -0.329198 0.0178267 0.00869703 -0.0753033 0.232294 -0.0119491 -0.0310293 0.0700686 0.154891 0.187331 -0.0325551 -0.208692 -0.00479659 0.0769008 0.161176 0.129086 0.189689 -0.0201709 0.0546204 0.117606 -0.0898448 -0.104889 -0.324548 0.0248109 -0.036335 -0.114762 0.0660584 0.0667327 -0.0530382 -0.101889 -0.196142 -0.101271 0.00546889 -0.0278467 -0.0834846 0.00679391 0.0888073 0.0508964 0.106852 0.0721083 0.0591395 0.168445 0.171996 0.112389 0.888564 -0.0254675 0.0575077 -0.0016962 -0.0496527 0.0587585 0.0602193 0.0733334 0.0524225 0.0697433 -0.0353628 -0.0186231 -0.0120649 0.0961936 0.103024 0.0611 0.0676013 0.000165905 0.116988 -0.0854158 0.146357 -0.103482 -0.306301 -0.0804761 -0.0871168 0.0293274 0.0744247 -0.0174664 -0.0383403 -0.0512434 -0.0871301 -0.00701008 -0.0870402 -0.138348 -0.156927 -0.121494 -0.13597 -0.185203 0.141434 0.231606 0.144127 0.192961 0.0548999 0.151496 0.0850614 0.0593981 0.0464564 0.132073 0.191187 0.26725 0.0721173 0.0493121 0.0549274 0.0777543 -0.0747927 -0.0890708 -0.111143 0.0299146 -0.10221 -0.0735016 0.0488905 0.0664315 0.0692005 -0.0606205 0.283471 0.0633916 0.274566 -0.0242652 -0.143994 0.000425784 -0.0118861 -0.0597661 0.189068 -0.0839286 -0.0581654 0.112103 -0.456631 -0.0420075 0.10003 -0.186896 -0.315082 -0.23982 -0.423591 -0.294499 0.105684 -0.138855 -0.0850819 -0.0659411 0.454724 -0.084926 -0.136365 -0.0793234 -0.078406 -0.0467473 0.120538 0.0668718 0.0560503 -0.0041675 -0.131362 0.0192793 0.0859011 0.136682 0.193993 0.170657 -0.0300546 -0.034202 -0.193408 -0.156293 -0.227333 -0.137649 0.225419 0.279711 0.418195 0.366535 -0.1585 -0.14034 -0.247851 0.0463951 -0.029115 0.12237 0.0610868 0.0206635 0.0126339 -0.0448744 0.0277187 0.0564562 0.0171168 -0.0127218 -0.0991317 0.0777125 0.0222193 -0.252417 -0.130617 -0.0147461 -0.0658975 -0.0926388 0.291742 0.0106609 0.187921 0.143833 0.171993 0.252211 -0.0662409 -0.127546 -0.220215 0.107456 0.125597 0.101954 -0.0741052 0.0414358 -0.0989927 0.124529 -0.0667526 -0.9764 0.568152 0.0337893 0.051821 0.0374093 0.208443 0.0192849 0.0231721 0.0999082 0.0795212 0.141376 0.233748 0.192628 0.136897 0.107591 0.0854879 0.0309577 -0.243412 -0.00762946 -0.174469 -0.342047 -0.148659 0.196341 0.0618836 0.550857 -0.405103 0.0480389 -0.135254 -0.00304692 0.00265524 0.306166 -0.0975224 0.168819 0.0317421 0.149093 0.443595 0.00188911 -0.00587572 -0.0124187 0.201308 -0.152885 -0.346649 0.274855 0.202335 0.171811 0.275192 -0.215021 0.617532 -0.000840687 0.224527 0.204356 -0.0256913 0.468276 -0.0356152 -0.12154 -0.201836 0.635742 0.0989623 0.0205653 0.292083 0.0628114 0.268855 -0.19122 -0.379508 -0.094683 0.195297 -0.00886773 -0.23876 0.176493 -0.247941 -0.0150505 0.0497556 -0.0926331 0.20098 -0.230389 0.249144 0.358756 -0.285562 0.206995 0.623239 0.096737 0.489942 0.100443 -0.169913 -0.0594857 0.230513 -0.0427846 -0.0228753 0.127187</Parameters>
    </MultilayerPerceptron>
    <UnscalingLayer>
        <UnscalingNeuronsNumber>3</UnscalingNeuronsNumber>
        <Statistics Index="1">
            <Minimum>-2.56729</Minimum>
            <Maximum>2.66366</Maximum>
            <Mean>-0.053314</Mean>
            <StandardDeviation>1.54388</StandardDeviation>
        </Statistics>
        <Statistics Index="2">
            <Minimum>-2.94472</Minimum>
            <Maximum>2.54362</Maximum>
            <Mean>-0.172081</Mean>
            <StandardDeviation>1.55676</StandardDeviation>
        </Statistics>
        <Statistics Index="3">
            <Minimum>-0.65955</Minimum>
            <Maximum>0.987767</Maximum>
            <Mean>0.0485961</Mean>
            <StandardDeviation>0.355064</StandardDeviation>
        </Statistics>
        <UnscalingMethod>MinimumMaximum</UnscalingMethod>
    </UnscalingLayer>
    <Outputs>
        <OutputsNumber>3</OutputsNumber>
        <Item Index="1">
            <Name>command_x</Name>
            <Units>meters per second</Units>
            <Description></Description>
        </Item>
        <Item Index="2">
            <Name>command_y</Name>
            <Units>meters per second</Units>
            <Description></Description>
        </Item>
        <Item Index="3">
            <Name>command_z</Name>
            <Units>meters per second</Units>
            <Description></Description>
        </Item>
    </Outputs>
</NeuralNetwork>
